<?xml version="1.0"?>
<opencv_storage>
<stage3>
  <maxWeakCount>8</maxWeakCount>
  <stageThreshold>-1.0389231443405151e+00</stageThreshold>
  <weakClassifiers>
    <_>
      <internalNodes>
        0 -1 5558743 -1.9217923181713559e-05</internalNodes>
      <leafValues>
        4.9059560894966125e-01 -6.9753086566925049e-01</leafValues></_>
    <_>
      <internalNodes>
        0 -1 6076091 5.2772141993045807e-02</internalNodes>
      <leafValues>
        -5.5184864997863770e-01 5.0763356685638428e-01</leafValues></_>
    <_>
      <internalNodes>
        0 -1 3680210 1.0082930326461792e-02</internalNodes>
      <leafValues>
        3.0569139122962952e-01 -8.8962906599044800e-01</leafValues></_>
    <_>
      <internalNodes>
        0 -1 1669364 -1.3412444852292538e-02</internalNodes>
      <leafValues>
        -8.2200425863265991e-01 1.7273421585559845e-01</leafValues></_>
    <_>
      <internalNodes>
        0 -1 5668081 8.6754444055259228e-04</internalNodes>
      <leafValues>
        -9.1434073448181152e-01 1.6967625916004181e-01</leafValues></_>
    <_>
      <internalNodes>
        0 -1 3787757 7.5104320421814919e-04</internalNodes>
      <leafValues>
        -7.6430904865264893e-01 1.9843819737434387e-01</leafValues></_>
    <_>
      <internalNodes>
        0 -1 5744050 -2.3464555852115154e-03</internalNodes>
      <leafValues>
        -9.3271571397781372e-01 1.5469306707382202e-01</leafValues></_>
    <_>
      <internalNodes>
        0 -1 5853710 2.9009130230406299e-05</internalNodes>
      <leafValues>
        -8.0792534351348877e-01 1.7197050154209137e-01</leafValues></_></weakClassifiers></stage3>
</opencv_storage>
